<?xml version="1.0"?>
<opencv_storage>
<cascade>
  <stageType>BOOST</stageType>
  <featureType>HAAR</featureType>
  <height>20</height>
  <width>20</width>
  <stageParams>
    <boostType>GAB</boostType>
    <minHitRate>9.9500000476837158e-01</minHitRate>
    <maxFalseAlarm>9.9999997764825821e-03</maxFalseAlarm>
    <weightTrimRate>9.4999999999999996e-01</weightTrimRate>
    <maxDepth>1</maxDepth>
    <maxWeakCount>100</maxWeakCount></stageParams>
  <featureParams>
    <maxCatCount>0</maxCatCount>
    <featSize>1</featSize>
    <mode>BASIC</mode></featureParams>
  <stageNum>4</stageNum>
  <stages>
    <!-- stage 0 -->
    <_>
      <maxWeakCount>3</maxWeakCount>
      <stageThreshold>7.9628020524978638e-01</stageThreshold>
      <weakClassifiers>
        <_>
          <internalNodes>
            0 -1 8 -5.6641615927219391e-02</internalNodes>
          <leafValues>
            9.0917873382568359e-01 -9.7512954473495483e-01</leafValues></_>
        <_>
          <internalNodes>
            0 -1 19 4.2857829481363297e-02</internalNodes>
          <leafValues>
            -9.4228529930114746e-01 9.0480947494506836e-01</leafValues></_>
        <_>
          <internalNodes>
            0 -1 5 -2.2226937115192413e-02</internalNodes>
          <leafValues>
            8.6660027503967285e-01 -9.3174052238464355e-01</leafValues></_></weakClassifiers></_>
    <!-- stage 1 -->
    <_>
      <maxWeakCount>5</maxWeakCount>
      <stageThreshold>-8.3034849166870117e-01</stageThreshold>
      <weakClassifiers>
        <_>
          <internalNodes>
            0 -1 11 5.2972979843616486e-02</internalNodes>
          <leafValues>
            -8.3783781528472900e-01 9.0041494369506836e-01</leafValues></_>
        <_>
          <internalNodes>
            0 -1 3 -1.9910931587219238e-02</internalNodes>
          <leafValues>
            -9.0611863136291504e-01 8.1133538484573364e-01</leafValues></_>
        <_>
          <internalNodes>
            0 -1 6 -6.1589434742927551e-02</internalNodes>
          <leafValues>
            8.9837414026260376e-01 -8.0804729461669922e-01</leafValues></_>
        <_>
          <internalNodes>
            0 -1 23 -6.4717128872871399e-02</internalNodes>
          <leafValues>
            7.7123850584030151e-01 -9.0729290246963501e-01</leafValues></_>
        <_>
          <internalNodes>
            0 -1 1 2.0916629582643509e-02</internalNodes>
          <leafValues>
            -8.2675856351852417e-01 6.4554011821746826e-01</leafValues></_></weakClassifiers></_>
    <!-- stage 2 -->
    <_>
      <maxWeakCount>10</maxWeakCount>
      <stageThreshold>3.6986756324768066e-01</stageThreshold>
      <weakClassifiers>
        <_>
          <internalNodes>
            0 -1 15 8.1154450774192810e-02</internalNodes>
          <leafValues>
            -8.1037926673889160e-01 8.1362724304199219e-01</leafValues></_>
        <_>
          <internalNodes>
            0 -1 12 -3.5777121782302856e-01</internalNodes>
          <leafValues>
            6.3020187616348267e-01 -9.0269708633422852e-01</leafValues></_>
        <_>
          <internalNodes>
            0 -1 0 -7.8480616211891174e-03</internalNodes>
          <leafValues>
            6.8395221233367920e-01 -6.6000789403915405e-01</leafValues></_>
        <_>
          <internalNodes>
            0 -1 11 9.7958594560623169e-02</internalNodes>
          <leafValues>
            -5.7600641250610352e-01 7.9732757806777954e-01</leafValues></_>
        <_>
          <internalNodes>
            0 -1 24 -8.0260463058948517e-02</internalNodes>
          <leafValues>
            7.0311307907104492e-01 -6.2955701351165771e-01</leafValues></_>
        <_>
          <internalNodes>
            0 -1 22 -1.2276234338060021e-04</internalNodes>
          <leafValues>
            5.4748976230621338e-01 -7.2716140747070312e-01</leafValues></_>
        <_>
          <internalNodes>
            0 -1 4 8.2528129220008850e-02</internalNodes>
          <leafValues>
            -8.2210034132003784e-01 4.6903064846992493e-01</leafValues></_>
        <_>
          <internalNodes>
            0 -1 20 3.5994784411741421e-05</internalNodes>
          <leafValues>
            -7.5395017862319946e-01 5.4126030206680298e-01</leafValues></_>
        <_>
          <internalNodes>
            0 -1 2 -4.2520456016063690e-02</internalNodes>
          <leafValues>
            4.0227326750755310e-01 -8.3712911605834961e-01</leafValues></_>
        <_>
          <internalNodes>
            0 -1 28 8.8664557551965117e-05</internalNodes>
          <leafValues>
            -7.7987647056579590e-01 4.1810271143913269e-01</leafValues></_></weakClassifiers></_>
    <!-- stage 3 -->
    <_>
      <maxWeakCount>12</maxWeakCount>
      <stageThreshold>-4.4019360095262527e-02</stageThreshold>
      <weakClassifiers>
        <_>
          <internalNodes>
            0 -1 10 -1.0079496353864670e-01</internalNodes>
          <leafValues>
            7.8620690107345581e-01 -6.0530972480773926e-01</leafValues></_>
        <_>
          <internalNodes>
            0 -1 13 -7.5248166918754578e-02</internalNodes>
          <leafValues>
            6.2799847126007080e-01 -7.9337620735168457e-01</leafValues></_>
        <_>
          <internalNodes>
            0 -1 17 6.5986275672912598e-02</internalNodes>
          <leafValues>
            -9.0919798612594604e-01 3.5542401671409607e-01</leafValues></_>
        <_>
          <internalNodes>
            0 -1 16 -8.6059881141409278e-05</internalNodes>
          <leafValues>
            4.6812915802001953e-01 -7.3207557201385498e-01</leafValues></_>
        <_>
          <internalNodes>
            0 -1 9 -9.6550788730382919e-03</internalNodes>
          <leafValues>
            -8.8801169395446777e-01 3.2673254609107971e-01</leafValues></_>
        <_>
          <internalNodes>
            0 -1 18 -1.5295343473553658e-02</internalNodes>
          <leafValues>
            4.4439345598220825e-01 -7.6835572719573975e-01</leafValues></_>
        <_>
          <internalNodes>
            0 -1 7 -2.4721998721361160e-02</internalNodes>
          <leafValues>
            -8.1895631551742554e-01 3.7060320377349854e-01</leafValues></_>
        <_>
          <internalNodes>
            0 -1 27 1.2801043340004981e-04</internalNodes>
          <leafValues>
            -7.2633820772171021e-01 3.9146587252616882e-01</leafValues></_>
        <_>
          <internalNodes>
            0 -1 21 -5.3336718119680882e-03</internalNodes>
          <leafValues>
            -8.7179493904113770e-01 2.6950606703758240e-01</leafValues></_>
        <_>
          <internalNodes>
            0 -1 25 -2.3349018767476082e-02</internalNodes>
          <leafValues>
            5.0453150272369385e-01 -7.4346894025802612e-01</leafValues></_>
        <_>
          <internalNodes>
            0 -1 26 -3.1276497989892960e-02</internalNodes>
          <leafValues>
            -9.6224319934844971e-01 2.4698343873023987e-01</leafValues></_>
        <_>
          <internalNodes>
            0 -1 14 -1.5458464622497559e-02</internalNodes>
          <leafValues>
            4.3964201211929321e-01 -6.4537358283996582e-01</leafValues></_></weakClassifiers></_></stages>
  <features>
    <_>
      <rects>
        <_>
          1 2 2 16 -1.</_>
        <_>
          2 2 1 16 2.</_></rects>
      <tilted>0</tilted></_>
    <_>
      <rects>
        <_>
          1 4 6 3 -1.</_>
        <_>
          4 4 3 3 2.</_></rects>
      <tilted>0</tilted></_>
    <_>
      <rects>
        <_>
          1 4 14 6 -1.</_>
        <_>
          1 7 14 3 2.</_></rects>
      <tilted>0</tilted></_>
    <_>
      <rects>
        <_>
          1 7 9 6 -1.</_>
        <_>
          4 7 3 6 2.</_></rects>
      <tilted>0</tilted></_>
    <_>
      <rects>
        <_>
          1 8 12 10 -1.</_>
        <_>
          1 8 6 5 2.</_>
        <_>
          7 13 6 5 2.</_></rects>
      <tilted>0</tilted></_>
    <_>
      <rects>
        <_>
          1 13 6 6 -1.</_>
        <_>
          1 13 3 3 2.</_>
        <_>
          4 16 3 3 2.</_></rects>
      <tilted>0</tilted></_>
    <_>
      <rects>
        <_>
          1 14 15 4 -1.</_>
        <_>
          1 16 15 2 2.</_></rects>
      <tilted>0</tilted></_>
    <_>
      <rects>
        <_>
          2 2 2 9 -1.</_>
        <_>
          2 5 2 3 2.</_></rects>
      <tilted>0</tilted></_>
    <_>
      <rects>
        <_>
          2 3 10 8 -1.</_>
        <_>
          2 3 5 4 2.</_>
        <_>
          7 7 5 4 2.</_></rects>
      <tilted>0</tilted></_>
    <_>
      <rects>
        <_>
          2 6 1 6 -1.</_>
        <_>
          2 8 1 2 2.</_></rects>
      <tilted>0</tilted></_>
    <_>
      <rects>
        <_>
          3 14 13 4 -1.</_>
        <_>
          3 16 13 2 2.</_></rects>
      <tilted>0</tilted></_>
    <_>
      <rects>
        <_>
          4 2 12 4 -1.</_>
        <_>
          4 4 12 2 2.</_></rects>
      <tilted>0</tilted></_>
    <_>
      <rects>
        <_>
          4 4 12 11 -1.</_>
        <_>
          8 4 4 11 2.</_></rects>
      <tilted>0</tilted></_>
    <_>
      <rects>
        <_>
          4 6 6 8 -1.</_>
        <_>
          7 6 3 8 2.</_></rects>
      <tilted>0</tilted></_>
    <_>
      <rects>
        <_>
          5 14 6 1 -1.</_>
        <_>
          7 14 2 1 2.</_></rects>
      <tilted>0</tilted></_>
    <_>
      <rects>
        <_>
          6 10 8 6 -1.</_>
        <_>
          6 13 8 3 2.</_></rects>
      <tilted>0</tilted></_>
    <_>
      <rects>
        <_>
          8 0 1 2 -1.</_>
        <_>
          8 1 1 1 2.</_></rects>
      <tilted>0</tilted></_>
    <_>
      <rects>
        <_>
          8 3 12 8 -1.</_>
        <_>
          8 3 6 4 2.</_>
        <_>
          14 7 6 4 2.</_></rects>
      <tilted>0</tilted></_>
    <_>
      <rects>
        <_>
          9 5 6 1 -1.</_>
        <_>
          11 5 2 1 2.</_></rects>
      <tilted>0</tilted></_>
    <_>
      <rects>
        <_>
          10 7 6 5 -1.</_>
        <_>
          13 7 3 5 2.</_></rects>
      <tilted>0</tilted></_>
    <_>
      <rects>
        <_>
          10 18 1 2 -1.</_>
        <_>
          10 19 1 1 2.</_></rects>
      <tilted>0</tilted></_>
    <_>
      <rects>
        <_>
          12 17 3 1 -1.</_>
        <_>
          13 17 1 1 2.</_></rects>
      <tilted>0</tilted></_>
    <_>
      <rects>
        <_>
          13 0 1 2 -1.</_>
        <_>
          13 1 1 1 2.</_></rects>
      <tilted>0</tilted></_>
    <_>
      <rects>
        <_>
          13 4 6 13 -1.</_>
        <_>
          16 4 3 13 2.</_></rects>
      <tilted>0</tilted></_>
    <_>
      <rects>
        <_>
          14 4 4 13 -1.</_>
        <_>
          16 4 2 13 2.</_></rects>
      <tilted>0</tilted></_>
    <_>
      <rects>
        <_>
          14 6 1 9 -1.</_>
        <_>
          14 9 1 3 2.</_></rects>
      <tilted>0</tilted></_>
    <_>
      <rects>
        <_>
          15 1 1 18 -1.</_>
        <_>
          15 7 1 6 2.</_></rects>
      <tilted>0</tilted></_>
    <_>
      <rects>
        <_>
          18 10 2 1 -1.</_>
        <_>
          19 10 1 1 2.</_></rects>
      <tilted>0</tilted></_>
    <_>
      <rects>
        <_>
          18 13 2 1 -1.</_>
        <_>
          19 13 1 1 2.</_></rects>
      <tilted>0</tilted></_></features></cascade>
</opencv_storage>
