<?xml version="1.0"?>
<opencv_storage>
<cascade>
  <stageType>BOOST</stageType>
  <featureType>HAAR</featureType>
  <height>20</height>
  <width>20</width>
  <stageParams>
    <boostType>GAB</boostType>
    <minHitRate>9.9500000476837158e-01</minHitRate>
    <maxFalseAlarm>5.0000000000000000e-01</maxFalseAlarm>
    <weightTrimRate>9.4999999999999996e-01</weightTrimRate>
    <maxDepth>1</maxDepth>
    <maxWeakCount>100</maxWeakCount></stageParams>
  <featureParams>
    <maxCatCount>0</maxCatCount>
    <featSize>1</featSize>
    <mode>BASIC</mode></featureParams>
  <stageNum>5</stageNum>
  <stages>
    <!-- stage 0 -->
    <_>
      <maxWeakCount>1</maxWeakCount>
      <stageThreshold>9.9600797891616821e-01</stageThreshold>
      <weakClassifiers>
        <_>
          <internalNodes>
            0 -1 6 -1.9138862262479961e-04</internalNodes>
          <leafValues>
            -1. 9.9600797891616821e-01</leafValues></_></weakClassifiers></_>
    <!-- stage 1 -->
    <_>
      <maxWeakCount>2</maxWeakCount>
      <stageThreshold>-2.7365293353796005e-02</stageThreshold>
      <weakClassifiers>
        <_>
          <internalNodes>
            0 -1 5 -6.0163289308547974e-02</internalNodes>
          <leafValues>
            9.7224974632263184e-01 -9.8990917205810547e-01</leafValues></_>
        <_>
          <internalNodes>
            0 -1 1 -5.0023619085550308e-02</internalNodes>
          <leafValues>
            9.6254390478134155e-01 -9.9809151887893677e-01</leafValues></_></weakClassifiers></_>
    <!-- stage 2 -->
    <_>
      <maxWeakCount>2</maxWeakCount>
      <stageThreshold>1.1152439750730991e-02</stageThreshold>
      <weakClassifiers>
        <_>
          <internalNodes>
            0 -1 0 6.6184580326080322e-02</internalNodes>
          <leafValues>
            -9.6319019794464111e-01 9.2172211408615112e-01</leafValues></_>
        <_>
          <internalNodes>
            0 -1 3 4.7939880751073360e-03</internalNodes>
          <leafValues>
            -8.9081758260726929e-01 9.7434264421463013e-01</leafValues></_></weakClassifiers></_>
    <!-- stage 3 -->
    <_>
      <maxWeakCount>2</maxWeakCount>
      <stageThreshold>-3.5581805277615786e-03</stageThreshold>
      <weakClassifiers>
        <_>
          <internalNodes>
            0 -1 4 6.0344366356730461e-03</internalNodes>
          <leafValues>
            -9.1451293230056763e-01 9.2555332183837891e-01</leafValues></_>
        <_>
          <internalNodes>
            0 -1 7 4.4611637713387609e-04</internalNodes>
          <leafValues>
            -9.1761529445648193e-01 9.1095471382141113e-01</leafValues></_></weakClassifiers></_>
    <!-- stage 4 -->
    <_>
      <maxWeakCount>2</maxWeakCount>
      <stageThreshold>-8.2378484308719635e-02</stageThreshold>
      <weakClassifiers>
        <_>
          <internalNodes>
            0 -1 8 -2.2737625986337662e-02</internalNodes>
          <leafValues>
            8.1470870971679688e-01 -8.9506822824478149e-01</leafValues></_>
        <_>
          <internalNodes>
            0 -1 2 2.5433987379074097e-02</internalNodes>
          <leafValues>
            -8.9708715677261353e-01 8.2624077796936035e-01</leafValues></_></weakClassifiers></_></stages>
  <features>
    <_>
      <rects>
        <_>
          1 4 6 12 -1.</_>
        <_>
          4 4 3 12 2.</_></rects>
      <tilted>0</tilted></_>
    <_>
      <rects>
        <_>
          2 3 10 8 -1.</_>
        <_>
          2 3 5 4 2.</_>
        <_>
          7 7 5 4 2.</_></rects>
      <tilted>0</tilted></_>
    <_>
      <rects>
        <_>
          4 1 3 6 -1.</_>
        <_>
          4 4 3 3 2.</_></rects>
      <tilted>0</tilted></_>
    <_>
      <rects>
        <_>
          6 1 8 9 -1.</_>
        <_>
          6 4 8 3 2.</_></rects>
      <tilted>0</tilted></_>
    <_>
      <rects>
        <_>
          7 10 6 9 -1.</_>
        <_>
          7 13 6 3 2.</_></rects>
      <tilted>0</tilted></_>
    <_>
      <rects>
        <_>
          8 9 10 8 -1.</_>
        <_>
          8 9 5 4 2.</_>
        <_>
          13 13 5 4 2.</_></rects>
      <tilted>0</tilted></_>
    <_>
      <rects>
        <_>
          9 8 2 3 -1.</_>
        <_>
          9 9 2 1 2.</_></rects>
      <tilted>0</tilted></_>
    <_>
      <rects>
        <_>
          10 7 9 3 -1.</_>
        <_>
          13 7 3 3 2.</_></rects>
      <tilted>0</tilted></_>
    <_>
      <rects>
        <_>
          13 13 3 6 -1.</_>
        <_>
          13 16 3 3 2.</_></rects>
      <tilted>0</tilted></_></features></cascade>
</opencv_storage>
