<?xml version="1.0"?>
<opencv_storage>
<cascade>
  <stageType>BOOST</stageType>
  <featureType>HAAR</featureType>
  <height>20</height>
  <width>20</width>
  <stageParams>
    <boostType>GAB</boostType>
    <minHitRate>9.9500000476837158e-01</minHitRate>
    <maxFalseAlarm>5.0000000000000000e-01</maxFalseAlarm>
    <weightTrimRate>9.4999999999999996e-01</weightTrimRate>
    <maxDepth>1</maxDepth>
    <maxWeakCount>100</maxWeakCount></stageParams>
  <featureParams>
    <maxCatCount>0</maxCatCount>
    <featSize>1</featSize>
    <mode>BASIC</mode></featureParams>
  <stageNum>4</stageNum>
  <stages>
    <!-- stage 0 -->
    <_>
      <maxWeakCount>1</maxWeakCount>
      <stageThreshold>9.6643632650375366e-01</stageThreshold>
      <weakClassifiers>
        <_>
          <internalNodes>
            0 -1 5 -8.2869536709040403e-04</internalNodes>
          <leafValues>
            -9.9189460277557373e-01 9.6643632650375366e-01</leafValues></_></weakClassifiers></_>
    <!-- stage 1 -->
    <_>
      <maxWeakCount>1</maxWeakCount>
      <stageThreshold>9.5485770702362061e-01</stageThreshold>
      <weakClassifiers>
        <_>
          <internalNodes>
            0 -1 2 -2.5815099477767944e-01</internalNodes>
          <leafValues>
            9.5485770702362061e-01 -9.9184507131576538e-01</leafValues></_></weakClassifiers></_>
    <!-- stage 2 -->
    <_>
      <maxWeakCount>2</maxWeakCount>
      <stageThreshold>-6.5075933933258057e-02</stageThreshold>
      <weakClassifiers>
        <_>
          <internalNodes>
            0 -1 4 3.4652140457183123e-03</internalNodes>
          <leafValues>
            -8.7610620260238647e-01 9.0640896558761597e-01</leafValues></_>
        <_>
          <internalNodes>
            0 -1 0 -4.1939139366149902e-01</internalNodes>
          <leafValues>
            -9.5010983943939209e-01 8.1103026866912842e-01</leafValues></_></weakClassifiers></_>
    <!-- stage 3 -->
    <_>
      <maxWeakCount>2</maxWeakCount>
      <stageThreshold>-1.2578231096267700e-01</stageThreshold>
      <weakClassifiers>
        <_>
          <internalNodes>
            0 -1 3 7.1182991378009319e-03</internalNodes>
          <leafValues>
            -8.3747607469558716e-01 9.1823899745941162e-01</leafValues></_>
        <_>
          <internalNodes>
            0 -1 1 -2.3458803072571754e-02</internalNodes>
          <leafValues>
            -9.7743469476699829e-01 7.1169382333755493e-01</leafValues></_></weakClassifiers></_></stages>
  <features>
    <_>
      <rects>
        <_>
          1 2 18 16 -1.</_>
        <_>
          7 2 6 16 2.</_></rects>
      <tilted>0</tilted></_>
    <_>
      <rects>
        <_>
          2 8 11 3 -1.</_>
        <_>
          2 9 11 1 2.</_></rects>
      <tilted>0</tilted></_>
    <_>
      <rects>
        <_>
          4 5 12 10 -1.</_>
        <_>
          8 5 4 10 2.</_></rects>
      <tilted>0</tilted></_>
    <_>
      <rects>
        <_>
          6 1 9 9 -1.</_>
        <_>
          6 4 9 3 2.</_></rects>
      <tilted>0</tilted></_>
    <_>
      <rects>
        <_>
          6 10 9 9 -1.</_>
        <_>
          6 13 9 3 2.</_></rects>
      <tilted>0</tilted></_>
    <_>
      <rects>
        <_>
          8 9 4 3 -1.</_>
        <_>
          8 10 4 1 2.</_></rects>
      <tilted>0</tilted></_></features></cascade>
</opencv_storage>
