<?xml version="1.0"?>
<opencv_storage>
<cascade>
  <stageType>BOOST</stageType>
  <featureType>HAAR</featureType>
  <height>16</height>
  <width>16</width>
  <stageParams>
    <boostType>GAB</boostType>
    <minHitRate>9.9500000476837158e-01</minHitRate>
    <maxFalseAlarm>5.0000000000000000e-01</maxFalseAlarm>
    <weightTrimRate>9.4999999999999996e-01</weightTrimRate>
    <maxDepth>1</maxDepth>
    <maxWeakCount>100</maxWeakCount></stageParams>
  <featureParams>
    <maxCatCount>0</maxCatCount>
    <featSize>1</featSize>
    <mode>BASIC</mode></featureParams>
  <stageNum>12</stageNum>
  <stages>
    <!-- stage 0 -->
    <_>
      <maxWeakCount>2</maxWeakCount>
      <stageThreshold>-1.4878877997398376e-01</stageThreshold>
      <weakClassifiers>
        <_>
          <internalNodes>
            0 -1 15 -3.2474376261234283e-02</internalNodes>
          <leafValues>
            8.8642925024032593e-01 -9.5837670564651489e-01</leafValues></_>
        <_>
          <internalNodes>
            0 -1 31 6.5291151404380798e-02</internalNodes>
          <leafValues>
            -9.6052843332290649e-01 8.0958789587020874e-01</leafValues></_></weakClassifiers></_>
    <!-- stage 1 -->
    <_>
      <maxWeakCount>2</maxWeakCount>
      <stageThreshold>-5.3711362183094025e-02</stageThreshold>
      <weakClassifiers>
        <_>
          <internalNodes>
            0 -1 17 6.4694687724113464e-02</internalNodes>
          <leafValues>
            -8.3820664882659912e-01 8.8295686244964600e-01</leafValues></_>
        <_>
          <internalNodes>
            0 -1 5 -3.5727411508560181e-02</internalNodes>
          <leafValues>
            7.8449523448944092e-01 -8.7215805053710938e-01</leafValues></_></weakClassifiers></_>
    <!-- stage 2 -->
    <_>
      <maxWeakCount>3</maxWeakCount>
      <stageThreshold>-9.3378782272338867e-01</stageThreshold>
      <weakClassifiers>
        <_>
          <internalNodes>
            0 -1 42 -8.2324400544166565e-02</internalNodes>
          <leafValues>
            8.8888889551162720e-01 -7.5415897369384766e-01</leafValues></_>
        <_>
          <internalNodes>
            0 -1 34 4.8592269420623779e-02</internalNodes>
          <leafValues>
            -8.4032893180847168e-01 7.5175368785858154e-01</leafValues></_>
        <_>
          <internalNodes>
            0 -1 0 4.0860179811716080e-02</internalNodes>
          <leafValues>
            -8.0407583713531494e-01 6.6070002317428589e-01</leafValues></_></weakClassifiers></_>
    <!-- stage 3 -->
    <_>
      <maxWeakCount>3</maxWeakCount>
      <stageThreshold>-7.7679729461669922e-01</stageThreshold>
      <weakClassifiers>
        <_>
          <internalNodes>
            0 -1 32 9.9071681499481201e-02</internalNodes>
          <leafValues>
            -7.5475287437438965e-01 8.3755272626876831e-01</leafValues></_>
        <_>
          <internalNodes>
            0 -1 25 -6.1804085969924927e-02</internalNodes>
          <leafValues>
            7.0263540744781494e-01 -7.2707217931747437e-01</leafValues></_>
        <_>
          <internalNodes>
            0 -1 23 -6.2277857214212418e-02</internalNodes>
          <leafValues>
            7.0502775907516479e-01 -6.8071222305297852e-01</leafValues></_></weakClassifiers></_>
    <!-- stage 4 -->
    <_>
      <maxWeakCount>5</maxWeakCount>
      <stageThreshold>-1.7944983243942261e+00</stageThreshold>
      <weakClassifiers>
        <_>
          <internalNodes>
            0 -1 42 -9.4174608588218689e-02</internalNodes>
          <leafValues>
            7.8177964687347412e-01 -6.9886362552642822e-01</leafValues></_>
        <_>
          <internalNodes>
            0 -1 26 -8.6724594235420227e-02</internalNodes>
          <leafValues>
            6.3575458526611328e-01 -8.6246889829635620e-01</leafValues></_>
        <_>
          <internalNodes>
            0 -1 7 1.1035795509815216e-01</internalNodes>
          <leafValues>
            -5.3799700736999512e-01 7.3261600732803345e-01</leafValues></_>
        <_>
          <internalNodes>
            0 -1 11 -8.8841710239648819e-03</internalNodes>
          <leafValues>
            5.9116411209106445e-01 -7.1134817600250244e-01</leafValues></_>
        <_>
          <internalNodes>
            0 -1 36 -3.3129744231700897e-02</internalNodes>
          <leafValues>
            6.8762904405593872e-01 -4.8204419016838074e-01</leafValues></_></weakClassifiers></_>
    <!-- stage 5 -->
    <_>
      <maxWeakCount>5</maxWeakCount>
      <stageThreshold>-1.0283035039901733e+00</stageThreshold>
      <weakClassifiers>
        <_>
          <internalNodes>
            0 -1 44 -3.4863382577896118e-02</internalNodes>
          <leafValues>
            7.6443940401077271e-01 -6.0429722070693970e-01</leafValues></_>
        <_>
          <internalNodes>
            0 -1 18 1.0739512741565704e-01</internalNodes>
          <leafValues>
            -6.1224514245986938e-01 7.1422272920608521e-01</leafValues></_>
        <_>
          <internalNodes>
            0 -1 3 -5.5406606406904757e-05</internalNodes>
          <leafValues>
            5.4343187808990479e-01 -7.4837166070938110e-01</leafValues></_>
        <_>
          <internalNodes>
            0 -1 14 8.3940170705318451e-02</internalNodes>
          <leafValues>
            -8.3168542385101318e-01 4.6690976619720459e-01</leafValues></_>
        <_>
          <internalNodes>
            0 -1 41 1.8038701266050339e-02</internalNodes>
          <leafValues>
            -7.7884697914123535e-01 4.6970075368881226e-01</leafValues></_></weakClassifiers></_>
    <!-- stage 6 -->
    <_>
      <maxWeakCount>5</maxWeakCount>
      <stageThreshold>-9.7834664583206177e-01</stageThreshold>
      <weakClassifiers>
        <_>
          <internalNodes>
            0 -1 39 9.6011400455608964e-04</internalNodes>
          <leafValues>
            -7.8208231925964355e-01 5.5025553703308105e-01</leafValues></_>
        <_>
          <internalNodes>
            0 -1 25 -1.2061636149883270e-01</internalNodes>
          <leafValues>
            7.6612937450408936e-01 -4.9746230244636536e-01</leafValues></_>
        <_>
          <internalNodes>
            0 -1 37 -1.5817506937310100e-04</internalNodes>
          <leafValues>
            4.8560896515846252e-01 -7.1614462137222290e-01</leafValues></_>
        <_>
          <internalNodes>
            0 -1 8 9.7253024578094482e-02</internalNodes>
          <leafValues>
            -5.9723627567291260e-01 5.4704308509826660e-01</leafValues></_>
        <_>
          <internalNodes>
            0 -1 13 8.1849313573911786e-05</internalNodes>
          <leafValues>
            -6.8157851696014404e-01 4.7029951214790344e-01</leafValues></_></weakClassifiers></_>
    <!-- stage 7 -->
    <_>
      <maxWeakCount>5</maxWeakCount>
      <stageThreshold>-8.2855641841888428e-01</stageThreshold>
      <weakClassifiers>
        <_>
          <internalNodes>
            0 -1 40 1.4105940237641335e-02</internalNodes>
          <leafValues>
            -5.8317756652832031e-01 6.7096775770187378e-01</leafValues></_>
        <_>
          <internalNodes>
            0 -1 12 -7.0825871080160141e-03</internalNodes>
          <leafValues>
            5.2083724737167358e-01 -7.1707373857498169e-01</leafValues></_>
        <_>
          <internalNodes>
            0 -1 38 -3.8539260625839233e-02</internalNodes>
          <leafValues>
            4.0171134471893311e-01 -7.1875804662704468e-01</leafValues></_>
        <_>
          <internalNodes>
            0 -1 27 1.0352721810340881e-01</internalNodes>
          <leafValues>
            -5.6869095563888550e-01 5.4162430763244629e-01</leafValues></_>
        <_>
          <internalNodes>
            0 -1 9 3.6313205957412720e-02</internalNodes>
          <leafValues>
            -4.7164076566696167e-01 6.9954115152359009e-01</leafValues></_></weakClassifiers></_>
    <!-- stage 8 -->
    <_>
      <maxWeakCount>5</maxWeakCount>
      <stageThreshold>-1.3207281827926636e+00</stageThreshold>
      <weakClassifiers>
        <_>
          <internalNodes>
            0 -1 32 1.0823266208171844e-01</internalNodes>
          <leafValues>
            -6.5256124734878540e-01 5.3176045417785645e-01</leafValues></_>
        <_>
          <internalNodes>
            0 -1 10 2.7320645749568939e-02</internalNodes>
          <leafValues>
            -6.8998628854751587e-01 4.5990654826164246e-01</leafValues></_>
        <_>
          <internalNodes>
            0 -1 1 3.0266327783465385e-02</internalNodes>
          <leafValues>
            -7.0893859863281250e-01 4.1166815161705017e-01</leafValues></_>
        <_>
          <internalNodes>
            0 -1 46 6.3820989453233778e-05</internalNodes>
          <leafValues>
            -6.3817834854125977e-01 4.3018984794616699e-01</leafValues></_>
        <_>
          <internalNodes>
            0 -1 4 -4.6702221035957336e-02</internalNodes>
          <leafValues>
            -9.0156328678131104e-01 2.8389626741409302e-01</leafValues></_></weakClassifiers></_>
    <!-- stage 9 -->
    <_>
      <maxWeakCount>4</maxWeakCount>
      <stageThreshold>-1.3536051511764526e+00</stageThreshold>
      <weakClassifiers>
        <_>
          <internalNodes>
            0 -1 21 -1.3213213533163071e-02</internalNodes>
          <leafValues>
            5.5236488580703735e-01 -8.0147057771682739e-01</leafValues></_>
        <_>
          <internalNodes>
            0 -1 28 2.7069166302680969e-02</internalNodes>
          <leafValues>
            -5.4035186767578125e-01 6.0061913728713989e-01</leafValues></_>
        <_>
          <internalNodes>
            0 -1 43 -1.1334508657455444e-01</internalNodes>
          <leafValues>
            6.1447262763977051e-01 -5.7917165756225586e-01</leafValues></_>
        <_>
          <internalNodes>
            0 -1 45 -5.7402492529945448e-05</internalNodes>
          <leafValues>
            3.9385479688644409e-01 -7.8644645214080811e-01</leafValues></_></weakClassifiers></_>
    <!-- stage 10 -->
    <_>
      <maxWeakCount>6</maxWeakCount>
      <stageThreshold>-1.1968346834182739e+00</stageThreshold>
      <weakClassifiers>
        <_>
          <internalNodes>
            0 -1 6 -4.3279875069856644e-02</internalNodes>
          <leafValues>
            6.0295671224594116e-01 -5.4226022958755493e-01</leafValues></_>
        <_>
          <internalNodes>
            0 -1 20 -7.4617743492126465e-02</internalNodes>
          <leafValues>
            5.3162831068038940e-01 -5.9634411334991455e-01</leafValues></_>
        <_>
          <internalNodes>
            0 -1 22 -2.5104954838752747e-02</internalNodes>
          <leafValues>
            6.4731168746948242e-01 -4.7082406282424927e-01</leafValues></_>
        <_>
          <internalNodes>
            0 -1 30 1.0360164195299149e-01</internalNodes>
          <leafValues>
            -7.5845336914062500e-01 4.0303319692611694e-01</leafValues></_>
        <_>
          <internalNodes>
            0 -1 16 -3.0578937381505966e-02</internalNodes>
          <leafValues>
            8.4728509187698364e-01 -3.8232550024986267e-01</leafValues></_>
        <_>
          <internalNodes>
            0 -1 29 -1.5894882380962372e-04</internalNodes>
          <leafValues>
            4.2540025711059570e-01 -7.3995673656463623e-01</leafValues></_></weakClassifiers></_>
    <!-- stage 11 -->
    <_>
      <maxWeakCount>5</maxWeakCount>
      <stageThreshold>-1.6380193233489990e+00</stageThreshold>
      <weakClassifiers>
        <_>
          <internalNodes>
            0 -1 24 6.3087389571592212e-04</internalNodes>
          <leafValues>
            -7.8962963819503784e-01 4.0226414799690247e-01</leafValues></_>
        <_>
          <internalNodes>
            0 -1 35 -8.3669662475585938e-02</internalNodes>
          <leafValues>
            -8.5854232311248779e-01 3.6308526992797852e-01</leafValues></_>
        <_>
          <internalNodes>
            0 -1 2 -1.6522385703865439e-04</internalNodes>
          <leafValues>
            4.2305776476860046e-01 -7.0977735519409180e-01</leafValues></_>
        <_>
          <internalNodes>
            0 -1 19 -2.4999395012855530e-02</internalNodes>
          <leafValues>
            3.3416256308555603e-01 -8.5905891656875610e-01</leafValues></_>
        <_>
          <internalNodes>
            0 -1 33 -1.8992926925420761e-02</internalNodes>
          <leafValues>
            -8.3453249931335449e-01 2.6565548777580261e-01</leafValues></_></weakClassifiers></_></stages>
  <features>
    <_>
      <rects>
        <_>
          0 0 6 6 -1.</_>
        <_>
          0 0 3 3 2.</_>
        <_>
          3 3 3 3 2.</_></rects>
      <tilted>0</tilted></_>
    <_>
      <rects>
        <_>
          0 1 6 4 -1.</_>
        <_>
          0 1 3 2 2.</_>
        <_>
          3 3 3 2 2.</_></rects>
      <tilted>0</tilted></_>
    <_>
      <rects>
        <_>
          0 4 2 1 -1.</_>
        <_>
          1 4 1 1 2.</_></rects>
      <tilted>0</tilted></_>
    <_>
      <rects>
        <_>
          0 7 2 1 -1.</_>
        <_>
          1 7 1 1 2.</_></rects>
      <tilted>0</tilted></_>
    <_>
      <rects>
        <_>
          0 7 9 2 -1.</_>
        <_>
          3 7 3 2 2.</_></rects>
      <tilted>0</tilted></_>
    <_>
      <rects>
        <_>
          0 10 6 6 -1.</_>
        <_>
          0 10 3 3 2.</_>
        <_>
          3 13 3 3 2.</_></rects>
      <tilted>0</tilted></_>
    <_>
      <rects>
        <_>
          0 12 14 2 -1.</_>
        <_>
          0 13 14 1 2.</_></rects>
      <tilted>0</tilted></_>
    <_>
      <rects>
        <_>
          1 3 4 10 -1.</_>
        <_>
          3 3 2 10 2.</_></rects>
      <tilted>0</tilted></_>
    <_>
      <rects>
        <_>
          1 3 4 11 -1.</_>
        <_>
          3 3 2 11 2.</_></rects>
      <tilted>0</tilted></_>
    <_>
      <rects>
        <_>
          1 3 14 2 -1.</_>
        <_>
          1 4 14 1 2.</_></rects>
      <tilted>0</tilted></_>
    <_>
      <rects>
        <_>
          1 11 6 2 -1.</_>
        <_>
          4 11 3 2 2.</_></rects>
      <tilted>0</tilted></_>
    <_>
      <rects>
        <_>
          2 0 11 2 -1.</_>
        <_>
          2 1 11 1 2.</_></rects>
      <tilted>0</tilted></_>
    <_>
      <rects>
        <_>
          2 4 6 2 -1.</_>
        <_>
          2 4 3 1 2.</_>
        <_>
          5 5 3 1 2.</_></rects>
      <tilted>0</tilted></_>
    <_>
      <rects>
        <_>
          2 14 1 2 -1.</_>
        <_>
          2 15 1 1 2.</_></rects>
      <tilted>0</tilted></_>
    <_>
      <rects>
        <_>
          3 6 6 10 -1.</_>
        <_>
          3 6 3 5 2.</_>
        <_>
          6 11 3 5 2.</_></rects>
      <tilted>0</tilted></_>
    <_>
      <rects>
        <_>
          3 7 6 2 -1.</_>
        <_>
          6 7 3 2 2.</_></rects>
      <tilted>0</tilted></_>
    <_>
      <rects>
        <_>
          3 11 10 2 -1.</_>
        <_>
          3 12 10 1 2.</_></rects>
      <tilted>0</tilted></_>
    <_>
      <rects>
        <_>
          4 1 8 4 -1.</_>
        <_>
          4 3 8 2 2.</_></rects>
      <tilted>0</tilted></_>
    <_>
      <rects>
        <_>
          4 1 9 4 -1.</_>
        <_>
          4 3 9 2 2.</_></rects>
      <tilted>0</tilted></_>
    <_>
      <rects>
        <_>
          4 4 6 1 -1.</_>
        <_>
          6 4 2 1 2.</_></rects>
      <tilted>0</tilted></_>
    <_>
      <rects>
        <_>
          4 4 4 12 -1.</_>
        <_>
          6 4 2 12 2.</_></rects>
      <tilted>0</tilted></_>
    <_>
      <rects>
        <_>
          4 5 1 3 -1.</_>
        <_>
          4 6 1 1 2.</_></rects>
      <tilted>0</tilted></_>
    <_>
      <rects>
        <_>
          4 5 2 7 -1.</_>
        <_>
          5 5 1 7 2.</_></rects>
      <tilted>0</tilted></_>
    <_>
      <rects>
        <_>
          4 5 4 6 -1.</_>
        <_>
          6 5 2 6 2.</_></rects>
      <tilted>0</tilted></_>
    <_>
      <rects>
        <_>
          4 10 2 2 -1.</_>
        <_>
          4 10 1 1 2.</_>
        <_>
          5 11 1 1 2.</_></rects>
      <tilted>0</tilted></_>
    <_>
      <rects>
        <_>
          4 11 9 4 -1.</_>
        <_>
          4 13 9 2 2.</_></rects>
      <tilted>0</tilted></_>
    <_>
      <rects>
        <_>
          5 3 6 6 -1.</_>
        <_>
          5 6 6 3 2.</_></rects>
      <tilted>0</tilted></_>
    <_>
      <rects>
        <_>
          5 7 6 6 -1.</_>
        <_>
          5 10 6 3 2.</_></rects>
      <tilted>0</tilted></_>
    <_>
      <rects>
        <_>
          5 10 7 2 -1.</_>
        <_>
          5 11 7 1 2.</_></rects>
      <tilted>0</tilted></_>
    <_>
      <rects>
        <_>
          6 0 1 2 -1.</_>
        <_>
          6 1 1 1 2.</_></rects>
      <tilted>0</tilted></_>
    <_>
      <rects>
        <_>
          6 2 10 8 -1.</_>
        <_>
          6 2 5 4 2.</_>
        <_>
          11 6 5 4 2.</_></rects>
      <tilted>0</tilted></_>
    <_>
      <rects>
        <_>
          6 3 10 6 -1.</_>
        <_>
          6 3 5 3 2.</_>
        <_>
          11 6 5 3 2.</_></rects>
      <tilted>0</tilted></_>
    <_>
      <rects>
        <_>
          7 5 6 6 -1.</_>
        <_>
          10 5 3 6 2.</_></rects>
      <tilted>0</tilted></_>
    <_>
      <rects>
        <_>
          7 7 1 9 -1.</_>
        <_>
          7 10 1 3 2.</_></rects>
      <tilted>0</tilted></_>
    <_>
      <rects>
        <_>
          7 7 3 6 -1.</_>
        <_>
          7 10 3 3 2.</_></rects>
      <tilted>0</tilted></_>
    <_>
      <rects>
        <_>
          7 7 9 4 -1.</_>
        <_>
          10 7 3 4 2.</_></rects>
      <tilted>0</tilted></_>
    <_>
      <rects>
        <_>
          8 9 6 4 -1.</_>
        <_>
          8 9 3 2 2.</_>
        <_>
          11 11 3 2 2.</_></rects>
      <tilted>0</tilted></_>
    <_>
      <rects>
        <_>
          10 0 1 2 -1.</_>
        <_>
          10 1 1 1 2.</_></rects>
      <tilted>0</tilted></_>
    <_>
      <rects>
        <_>
          10 0 6 6 -1.</_>
        <_>
          10 0 3 3 2.</_>
        <_>
          13 3 3 3 2.</_></rects>
      <tilted>0</tilted></_>
    <_>
      <rects>
        <_>
          10 4 2 2 -1.</_>
        <_>
          10 4 1 1 2.</_>
        <_>
          11 5 1 1 2.</_></rects>
      <tilted>0</tilted></_>
    <_>
      <rects>
        <_>
          10 7 2 3 -1.</_>
        <_>
          11 7 1 3 2.</_></rects>
      <tilted>0</tilted></_>
    <_>
      <rects>
        <_>
          10 11 6 4 -1.</_>
        <_>
          10 11 3 2 2.</_>
        <_>
          13 13 3 2 2.</_></rects>
      <tilted>0</tilted></_>
    <_>
      <rects>
        <_>
          11 3 4 10 -1.</_>
        <_>
          13 3 2 10 2.</_></rects>
      <tilted>0</tilted></_>
    <_>
      <rects>
        <_>
          11 3 4 13 -1.</_>
        <_>
          13 3 2 13 2.</_></rects>
      <tilted>0</tilted></_>
    <_>
      <rects>
        <_>
          12 4 2 8 -1.</_>
        <_>
          13 4 1 8 2.</_></rects>
      <tilted>0</tilted></_>
    <_>
      <rects>
        <_>
          13 0 1 2 -1.</_>
        <_>
          13 1 1 1 2.</_></rects>
      <tilted>0</tilted></_>
    <_>
      <rects>
        <_>
          14 2 2 1 -1.</_>
        <_>
          15 2 1 1 2.</_></rects>
      <tilted>0</tilted></_></features></cascade>
</opencv_storage>
